# Input 1
self.x1_step1_xoffset = np.array([[0.3484404],[1.741693],[0.8046206],[0.8046206],[1.741693],[0.3484404],[1.024116],[1.591962],[1.225788],[1.225788],[1.686761],[1.024116],[2.113825],[2.207238],[1.74425],[1.74425],[2.207237],[2.113825]])
self.x1_step1_gain = np.array([[1.43496563544296],[2.10391001156099],[1.17851885400355],[1.17851885400355],[2.10391001156099],[1.43496563544296],[1.59013606794333],[10.9516430202441],[1.43409988362279],[1.43409988362279],[11.5382174607845],[1.59013606794333],[3.28111439769403],[5.26203625016773],[2.32846490130219],[2.32846490130219],[5.26203625016773],[3.28111439769403]])
self.x1_step1_ymin = np.array([-1])

# Layer 1
self.b1 = np.array([[-0.36724745126300556],[0.49304672644228331],[0.16941471453204604]])
self.IW1_1 = np.array([[-0.95593739649077969,-0.95430547083284289,1.0811690844918966,0.055269033492802967,-0.98373764806750741,-0.55965904131854671,0.22381482110918816,-0.71359156484846742,-0.40459247453759545,-0.37764152714852783,0.30188912313138455,-0.52469183223515203,0.66614851019544663,-1.0090248629900256,-0.53333747889194072,-0.66784828973206833,0.33784453128676084,-0.9021649364244374,-0.22628619436866457,0.32202227612667506,-0.026637411170922415,0.1326120705565432,-1.1362935498525788,-0.72600451330435345,-0.072125286992614265,0.67584452168791043,-0.54481887822007347,0.31738916679164764,-0.69763481233178459,0.70180892443278797,0.42481032192589036,-0.39200051284481563,-0.045657819885836462,0.56976331884557463,-0.2227857230676577,0.5176622572198164,-0.27234839451776199,0.64434971670529084,-0.52164368236508685,-0.48477055962922122,0.53422252333994813,0.3342867039749321,0.050225631755411865,0.46932177638277656,0.32039288860322707,0.42967446197592107,0.37802552863321703,0.44448447389017426,0.0066586004843912465,-0.19899895791267846,0.80623578584799249,0.20521076724990828,0.35921387690279577,0.82956951962200343],[0.1964336274501555,-0.37844364348550313,0.082839538903923191,-0.33405959535471713,1.2674004857570358,0.32224869023047237,-0.60739619816341217,0.2496252910700715,-0.46281892744847197,0.60505623350263504,0.15536486405396613,0.96399589021908538,-0.056141611381722745,0.045162520916558369,-0.15008513710487972,0.68942982689947085,0.59441968088556951,-0.43998541125601831,0.33191227347307833,0.36154598875803406,-0.60445301515272931,0.30286004791590432,-0.54222876490184346,-0.096810043401646922,0.4098990173628515,0.22847932748268693,0.012231341275622571,0.050283827238280517,-0.60849635103220723,-0.65192359087032192,-0.44338691787579382,0.58127038063258407,-0.070258043241505808,-0.27401250850461939,-1.179070266921056,0.49015443942506548,-0.013367198230641503,-0.39097898556298155,0.90959185823599276,-0.43918141022569213,0.21650804722286163,0.067085981272669376,0.500530253299874,-0.22397391299434583,-0.33471318591020272,0.30558196851280045,0.13580399678216107,-0.87694115606234146,0.20368137739511649,-0.27491179289425183,-0.10082892083863414,-0.30250044971208095,0.5310286725890957,-0.44044403215799682],[0.63136096380281925,-0.13284468184941581,-1.0021136153416426,0.5802954443641215,0.034284915057014476,-0.51029718164878568,-0.16644695555327985,-0.12323722013815634,-0.10956891373784608,0.62158201820939396,-0.13203584319342679,0.4138487424161843,0.38432729666620258,-0.62542956442458386,-0.22480884973402626,-0.12873171520231669,0.02621391699091009,-0.16518573432737016,-0.0010962880758995286,1.132054247722603,-0.018403178051793912,0.61724419118789087,-0.49793087166957473,0.23794940134656822,-0.66653056863494908,0.6542334704077517,0.0081193884893979874,-0.43401133887394044,0.089173353098013136,-0.14159675351886886,0.2220128829390926,0.38748381971089668,-0.07004754612786579,0.57759831133461736,0.73690538703524455,-0.67688569131816267,-0.54906251573484921,0.29623377622832731,-0.48552547204887597,0.2895691017550327,-0.68715722413689129,0.42547683017106469,-0.18910870861587536,-1.0322306701997939,0.095740865893400584,-0.12127754071590678,0.44739903530302649,0.61993535011320888,0.92402881869404219,-0.59679696021949979,-0.22845493749756629,0.10724157321768833,0.20974915372282335,-0.60425669950329486]])
self.LW1_2 = np.array([[-0.46981996659294434,-0.35969082844116707,0.95708110058186513,0.13286227747218671,0.14657555294715999,-0.75554767713084892],[-2.7834457219530679,3.4887030934206291,1.6990131367293129,0.03330591458450391,-0.38819675327191888,-0.90889704474722555],[-0.55891776263076587,-4.7350474623228882,1.1718828239205199,-0.3270597458267071,-0.70875874514450743,1.8564798909432072]])

# Layer 2
self.b2 = np.array([[0.36275161900667935],[0.035992858574821152]])
self.LW2_1 = np.array([[-0.31364385079611024,-0.77854235573513697,-0.5385120754377779],[-0.026076978690067282,0.0071745688253732464,-0.29789377917725102]])

# Output 1
self.y1_step2_ymin = np.array([-1])
self.y1_step2_gain = np.array([[0.124124457110656],[0.217838560060977]])
self.y1_step2_xoffset = np.array([[-7.661499],[-4.110675]])
self.y1_step1_xrows = np.array([3])
self.y1_step1_remove = np.array([1])
self.y1_step1_value = np.array([0])
self.y1_step1_keep = np.array([[2,3]])