% Input 1
x1_step1_xoffset = [0;0;0;0;0;0;0;0;0;0;0;0;0;0;0;0;0;0];
x1_step1_gain = [0.2;0.2;0.2;0.2;0.2;0.2;0.2;0.2;0.2;0.2;0.2;0.2;0.2;0.2;0.2;0.2;0.2;0.2];
x1_step1_ymin = -1;

% Layer 1
b1 = [-0.71308147018789481;0.061335171950372351;-0.014519180779537306;-0.39813453091102963;-0.44150852498633647;0.47404859483674422];
IW1_1 = [-0.07288804551198988 -0.0090634964316409234 -0.20447165433287065 -0.15334962554441928 0.10922433470894398 -0.24389369632282651 -0.14950745263961951 0.14103022107859406 -0.17355718488783031 -0.22989282199847766 0.029166338000009322 -0.1215518261776751 0.16820779370932998 0.24580723394564308 0.076832114731322648 -0.032069012521195817 0.038867947814135169 0.066511338202861134 -0.086003557983286238 -0.017982885155997465 -0.040021539418853232 -0.14721004854861888 0.19011755536864075 -0.10590373224052915 -0.35815573173425713 0.019171333987827392 0.002652071386670808 -0.048027370111569836 -0.21245843736720918 -0.096408575064576021 -0.12050446207995956 0.18500007670127025 -0.052511966159563848 -0.15487072716691394 0.17041728166771422 -0.082958867632185365 0.053602073496199207 0.059365740246717258 -0.10307604240670167 -0.027220676294681903 -0.013673182703051687 -0.38309276841642381 -0.2524041953312734 -0.086056744397599472 0.015686685583478913 0.028456964684625625 0.14944368585749845 0.010513143935007059 0.11012789512078025 0.24547875097081046 0.047529249587871095 0.0090355806142830737 0.30070686027049498 -0.15344069773598884;0.13771973675492091 -0.011707749465848528 0.46324511610524483 0.35256996334969848 -0.25184615365502255 0.4966749181215912 0.47321330468544343 -0.29269579429375076 0.27725776027315796 0.41460581546807324 -0.058398665515882735 0.39724168205439447 -0.27369680829880944 -0.59553633654431692 -0.21778779600251363 0.0063078350873181357 -0.14165581264390836 -0.025146071321170017 0.21712594394556722 0.03302091396140814 0.050725640373703425 0.2726216231136856 -0.34971896443732203 0.27282903211579834 0.57156170004891338 -0.063697371106709075 0.073475699113835197 0.1341541213057236 0.42919263867352631 0.029665364768812805 0.16006933697494441 -0.35097560755598606 0.15199178907922908 0.38078765622317207 -0.32799892166921563 0.047371379076224851 -0.13515550541619642 -0.09625737883830783 0.22935712184617174 0.076152745971801453 -0.015159468484899446 0.785130887141127 0.58071192139935879 0.19548504147488405 -0.03255723211981195 -0.029587082632072458 -0.30193567963494955 0.02280209392749543 -0.21815975500160689 -0.50621181438776419 -0.093533878843763241 -0.017132004306082315 -0.62882728462834314 0.34213029530903011;-0.26242737396603594 0.006591122660773799 -0.78536648706342937 -0.59778127396650382 0.38399091245066858 -0.89286743056413453 -0.67127834911157558 0.54228764870433332 -0.59332256110475556 -0.83365641626582199 0.12830395705620223 -0.53735248162594507 0.59741306027287544 0.97763456846789076 0.30673099898176842 -0.090788927313181805 0.19113613824615341 0.15709240572034425 -0.36842795067710743 -0.028398351574689479 -0.11364794391567461 -0.49171576337838552 0.65857864744018746 -0.46299214971038666 -1.1525412390899508 0.089766549583483637 -0.013724746474031053 -0.1227973103212498 -0.77266139256072275 -0.1962880493250726 -0.37254597098821268 0.70402937243920405 -0.18236731330044584 -0.59045136657651731 0.66002605030735573 -0.17991889976780001 0.24293677102040173 0.14528470253666592 -0.40253836355629197 -0.13822193646938774 0.033754871952800143 -1.3767687603066738 -1.0287575287865198 -0.34755485312080459 0.049112892284495911 0.045833304588534636 0.52586985191534485 -0.05429742179575877 0.3600430923632314 0.87187800432095841 0.15523557489207307 0.031564298240760694 1.0802724537864961 -0.61505620689561624;-0.25338910382497448 0.031462873607443986 -0.75723046469983102 -0.58679934224873209 0.36839532208284559 -0.85311282083424833 -0.63493187005242946 0.53175522398492259 -0.5325033929856452 -0.76516432158399605 0.13362361849027712 -0.50373690604632626 0.57434553189084203 0.94993708087836848 0.32619995149578029 -0.05464650514130491 0.18525677052059222 0.13967663179721079 -0.36290564043942941 -0.042734002663933499 -0.10882661434202918 -0.46002247204506796 0.62794769442430964 -0.46027361349976603 -1.0807371655478928 0.081933643603191067 -0.05251727422806738 -0.14329344177970074 -0.74819994292419079 -0.16235692937998666 -0.33891308642095497 0.6656899580145107 -0.20268989651046548 -0.600387981394639 0.62994659425022426 -0.14185553812933385 0.24482755585734289 0.13405909702800872 -0.38948531733878899 -0.13792381043166474 0.044544851251950651 -1.3161130924904969 -1.0312424453331255 -0.33853876449296416 0.050343621342948397 0.033969022259138483 0.50138489514258378 -0.093236248003337768 0.32796834350875093 0.84581262600029217 0.14752026984405067 0.030849842989553473 1.0471184547271515 -0.61127742477753411;-0.22686182531556612 0.01493015565138478 -0.69407370429798532 -0.53765607232550183 0.34974747942763568 -0.77260711457992481 -0.61064627074134448 0.46765623070220186 -0.47045291357205987 -0.68123318228934415 0.10590188332415293 -0.49164882457546549 0.49112512652376727 0.85690101528873819 0.3092257515627484 -0.039089096342669549 0.16265675059059989 0.098506400506551059 -0.33211024123073662 -0.03452268829880694 -0.091820042687723133 -0.41433041396134479 0.56068342792131021 -0.41974193463965942 -0.95077784615397476 0.085339028485168528 -0.066274481245223518 -0.15354301596807288 -0.67139260823887548 -0.11836867079191352 -0.2843822232231894 0.59540192689542093 -0.20037285435260477 -0.55942781969502786 0.56285079444240926 -0.10602411268367153 0.21950714590996359 0.12933247320185237 -0.35519772877739564 -0.12468359760846029 0.033600353589967186 -1.2011935421523174 -0.93574226455601961 -0.30363579500768079 0.047877435565127455 0.037025735612641608 0.46142330231725087 -0.079233041808279323 0.3060621288971298 0.7832277974948465 0.13661397745568774 0.029039946675053146 0.96542306884921292 -0.55035170804973066;-0.093827856194288822 0.0017873941681146365 -0.28455093877587129 -0.21594245741714133 0.14332677467416804 -0.32093403602776416 -0.26616348935416989 0.1891315756736327 -0.19557365246656461 -0.28181519465317256 0.040282579497629069 -0.21673277369929017 0.1944482228367353 0.35802953671629295 0.12511789006165033 -0.020427039334970604 0.077083160539864262 0.036908288125121758 -0.13325017131642555 -0.023025113172458429 -0.035495854905842221 -0.17336223438616838 0.23026574317596507 -0.1668946883409253 -0.39652404074323139 0.035748531893780695 -0.023356423198812891 -0.066009239815276108 -0.27593782700150937 -0.055263279412685253 -0.12120690529450902 0.23940327710315909 -0.080249459391677519 -0.22579761055699593 0.22377778324776915 -0.051964591062917842 0.0859990339873411 0.062340906747025138 -0.14618496541829645 -0.050276038671783617 0.0097966362098117384 -0.49624735776421031 -0.36232125904190932 -0.12291309066827828 0.017304915183188229 0.019642200077878424 0.19264203857535375 -0.010701312948643441 0.13709024009488277 0.31913786659559079 0.055143519360381504 0.011984777564186803 0.39241914187346622 -0.21445961562006061];
LW1_2 = [-3.1130331840307677 1.4148703151220039 -0.39939559899024724 0.55818052859496858 2.459066110323282 -3.3156691331585133 -1.0388852036698237 0.67733014722312757 0.70812108278418273 0.029570792447661216 0.75739578852479639 -1.3327866110195277 -0.30802437154893209 1.347463205770506 0.2751838059061591 0.43295274472700945 0.69319658623250768 -1.2395748911122222 -1.7096782947726068 2.7457449155680429 0.1289313541106771 -0.10348432511410255 2.5702586320051801 -0.30948737218974454 0.46650651308408952 -0.60944924763680253 0.53209739764931185 -0.26175839790950967 -0.8439705378021124 -0.52816465207062391 0.7794153084840465 -0.091515279761346685 0.42757028534608188 -1.2375555632951232 0.51763550784636236 0.59740832074176409 -0.92927772282506538 0.92917308690588529 -0.74092562489959113 -1.1313045949449345 0.72419319066906951 -1.6542677242661898 0.53191795114232476 0.90378533922639481 0.15811632943221365 0.26922773867632122 -0.91680293653777822 -0.32213285559374927 -0.1033324546198038 -0.57286502051116694 -0.7168330784871586 0.59010173993214132 -0.062756896598195916 0.3114521273588754;1.2789674915543956 -1.096720192024589 -4.0368989251566347 -4.5268879879326986 -1.0299912346774902 1.1072333254341578 -0.89421907008594248 -0.48633906900246371 -1.1297377648595501 0.10327517177091931 0.55271382850669937 -0.99275068511761766 1.4081849581642101 1.893501781652374 0.024086336157112913 -0.82859474382224962 0.9721970790704979 0.60907266731323439 1.7299473650023007 -0.44333509844347685 -0.075297182785652186 -0.25962391677853242 0.75973065403032458 0.63566288819488703 1.4375896456010018 -0.8072804895349035 -0.87504556103599818 -0.86450003306863943 -0.090321760839910864 1.5899413496565953 -0.22855630637536697 -0.91870298107613713 -1.0683331794141144 -0.87438675499498653 -1.0786850478211847 0.22302293666137574 -0.29399777913242925 -0.75691582695529747 2.1975714702585951 1.2586968813490529 -1.7044064898792144 1.0739411877575891 0.093813358146073611 -0.4974025905790051 0.35364086780158172 -0.43645714197020735 0.87902049638454838 -0.50157823237561605 -0.61300198684380447 -0.0093886376675411422 1.2458521738480108 0.05869128441040615 0.44027161396373304 0.0045742743771092142;0.7175469523503083 1.6438984423085654 -1.9675917409734078 -0.50118488703022113 2.1842298065817456 -0.11152549376429843 -0.93024919035184894 -2.1578151886625854 -0.75439817948305699 0.99270000001661296 -1.9355229689546523 -1.5804721864511957 0.63967641997523672 -1.0663692993748015 2.2324309478186151 2.0405680027091999 0.24218426120015057 -0.47692881251264396 -0.70852268173390742 -0.35679739345828482 0.089745026253304466 -0.53660727293215349 0.25829313806101201 -0.22348954704993776 2.4257560255401809 1.3977118371158397 0.0041390600183081761 -0.53938954808564399 1.3762029347779214 0.61027846242950146 0.090511446126803841 0.3546914242632912 0.12945701547085398 -0.22742511857816994 1.1003365473020226 -0.029893836978355605 -0.58466950857515054 0.027064502787517757 1.2776783360203898 -0.0098899269517679009 -0.20987456050039444 -1.0790464897207555 -0.66885412739709194 -0.050111736097235404 0.5440591491240111 0.96344326299745331 -0.28307210034024527 -1.0697320057986237 -0.1838831477871832 0.34952627035063416 0.7620851386250963 -0.077472849450445844 -0.20244330329186694 -0.3273490465186164;-0.49751010864616024 -1.972895682443645 0.84588914435843943 -0.421448225799052 -1.9293330298878471 -1.0066079084773945 0.64541571349586413 -0.5958029911864694 -0.5747426659847662 -0.58203274843319952 -0.67856690875866565 1.0204946893959688 -0.21197499680601989 1.1938900915023245 0.22281651994998555 -1.2603601108275151 1.18772071855366 -1.0189724688303861 2.4655782907303672 0.37474009890641774 0.92154194228554265 0.53705394503917459 -0.3010898784392127 0.71986883402966539 -0.20708765109249408 -0.51569114130993543 0.10050338576231638 0.56559664465218085 0.13849180825753554 -0.98760421581221913 -0.20839437303768743 0.98707156337865376 0.26568781853578821 0.94483687011846684 -0.47931770274269098 0.27598024063499632 -0.10768125966968595 -1.7898946827542399 0.11855389217173988 0.47318703252245087 -1.1317709239645504 1.0315165815593828 -0.36427134493646207 -0.33283850038057822 0.030049095506518245 0.6268037015108131 0.52251858213835933 0.16571553297187289 0.016866799115391958 -0.23412615724141472 0.62844438178052053 0.26357089885654084 0.65797600820768165 0.026729061789822983;1.4956114804521385 0.5307298348347621 0.043718875504156221 1.5497868863603681 0.70942099560190575 1.8913719205763566 0.12161712232001173 1.2588508105402814 -0.16344729162437691 0.078405881294532243 1.2832496120574888 0.35722307396940117 -0.0068088417240437004 2.1885628741592944 -0.98738965402855805 -1.4131406858435758 1.9836028952717901 -0.10422668932226806 -0.68194119443140833 -0.12941172533008261 -0.63216894313087735 0.32060290844092187 -1.2856623538312775 -0.74972966783867101 0.75979643904705518 -2.8805370091510496 -0.36501121603852121 1.3165373752751133 -1.0607204442170277 -0.71863234825207201 -0.32876159011413936 -0.24669802788070874 -0.32476009841258585 -0.49306542259604624 0.44722375087747368 -0.95319904101071395 0.26860826504598206 0.025676885015151092 0.057648647347438672 0.71911326775793205 -0.53215075821353308 -0.26040397574587748 -0.22600002511253484 0.81657393482934537 -0.21215954770144876 0.80660188897091334 0.64334657980014376 -0.25534003007758643 -0.72670868205294703 -0.2909058296284634 0.47408253270521145 0.22937534903416942 -0.14097902029424417 -0.42224810605427127;2.065032415146637 1.158657405253473 -3.4130078360393914 -2.6664530625071703 2.2543313827204834 0.98952930132951389 1.5636782063364187 -0.70615614170621266 0.10587460959040246 -0.10703739013293001 1.0889992202043242 0.52960460650469887 -0.50179904018720467 0.1261320438372816 -0.38086389235760554 0.025106574913082633 -0.77748845674817924 -0.39428471103496149 -0.35472582043487616 0.92959252337446541 -0.13138899807268803 -0.22602677501765034 0.79821409571166935 -1.6338896133665897 -0.066446087074096175 -0.37981710790458117 0.66702423207014283 -0.016659629632158598 1.4761668714070546 -1.8234472048522306 -0.53844324940491972 0.14296435303258975 0.14222152267328567 -0.38265193922373747 -0.62520456021154025 -0.43041487845606696 -0.80959282462705884 0.023291262083840497 0.72394362300105264 1.254379033771065 -0.54350671427877895 -0.77946116877161364 0.082500760445604338 -0.48365836198886564 -0.063782874342880672 0.36882114274084238 -0.50689734189841684 -0.21074164852251415 0.79287084140016351 0.19672691140846171 -0.22921512019499365 0.49819453889542525 0.56859113963601426 0.22010637658434576];

% Layer 2
b2 = [-0.04490266795484759;-0.060553344845759999;0.001261787135987219;0.0012617871268846522;-0.060553344845760082;-0.044902668164459029;-0.18566492633925183;0.01170223571374567;0.16431000002974708;0.16430998020069107;0.010620466265526049;-0.18566497171164736;-0.13446987507685237;0.25819017739261729;0.098235076488592671;0.098235076488592935;0.25818948301365907;-0.13446987507685296];
LW2_1 = [-0.10972145037826349 0.034476667712511025 0.12877431262474134 -0.20842070938261789 0.17250691870032897 -0.083938068372263794;-0.05272902303539867 -0.031845453649612339 0.073944579933564736 -0.19323939339246685 0.12985682848668798 -0.015675883731695105;-0.054210997562293993 -0.10373206147641469 -0.0014284670056856233 -0.088932623729332083 0.084187210389167863 -0.086863967450570817;-0.054210997558107016 -0.10373206147439423 -0.0014284670079286988 -0.088932623723112281 0.084187210382751773 -0.086863967445835438;-0.052729023035398656 -0.031845453649612311 0.073944579933564722 -0.19323939339246679 0.12985682848668795 -0.015675883731695091;-0.10972145012339472 0.034476667754955496 0.12877431251133029 -0.20842070913753913 0.17250691836307389 -0.083938068087424003;-0.034075255399332767 -0.13460762509165161 -0.20132638500131433 0.12795716567960311 -0.10096760574928246 0.2752803532833285;0.060303663439144742 -0.029480050629584274 -0.24595888269849761 0.095031941209111834 0.061991918011043382 0.18784686916270785;0.035367736087023087 0.138687824730896 0.19556240314684659 -0.12445819256324207 0.10603066294613843 -0.27579141089478348;0.035367737164403702 0.13868782614549405 0.19556240421234183 -0.12445819342678023 0.1060306640227357 -0.2757914130038584;0.060104937296088158 -0.029457639618382759 -0.2459049562677407 0.095195701223894938 0.061829599022995396 0.18781328118183793;-0.034075253792562078 -0.13460762639191953 -0.20132638960770094 0.12795716855689018 -0.10096760715336323 0.27528035852148003;-0.014498035470708021 -0.11507067982504518 -0.21087673292122494 0.12074167753766334 -0.068851724130046504 0.25966309256908038;0.10918680736893548 0.21352750808180818 0.12816177005246107 -0.13058512102321151 0.23183609074857403 -0.31463338385826845;0.0091558298327536237 0.10434378263873111 0.21434323573306063 -0.12123135734945999 0.056663881869604117 -0.25085056376734471;0.0091558298327535526 0.10434378263873104 0.21434323573306069 -0.12123135734946013 0.056663881869604221 -0.25085056376734477;0.10918679902317835 0.21352751481527471 0.12816180460873197 -0.13058515100462348 0.23183610748379646 -0.31463342035916636;-0.01449803547070774 -0.11507067982504525 -0.21087673292122516 0.12074167753766353 -0.06885172413004674 0.25966309256908077];

% Output 1
y1_step1_ymin = -1;
y1_step1_gain = [1.43496563544296;1.84052241388196;1.1873988484606;1.1873988484606;1.84052241388196;1.43496563544296;1.59299718437748;11.0404522169228;1.43726792614455;1.43726792614455;11.6323029051677;1.59299718437748;3.29791917789471;5.31643416127935;2.33310157857653;2.33310157857653;5.31643416127935;3.29791917789471];
y1_step1_xoffset = [0.3484404;1.731726;0.806658;0.806658;1.731726;0.3484404;1.024118;1.591961;1.225791;1.225791;1.686761;1.024118;2.11382;2.207239;1.744254;1.744254;2.207239;2.11382];
